Edge Weights:
[[-2.03158662e-01  1.17476150e-01  2.78386146e-01  3.39044750e-01
  -1.45777151e-01  1.92686617e-01 -1.81115642e-01 -3.09063882e-01
   3.39277565e-01 -8.45525116e-02]
 [ 1.35243878e-01 -1.14049137e-01  1.46658510e-01  2.87848208e-02
   4.53882143e-02 -1.62190989e-01 -1.39007300e-01  9.05401260e-02
   9.92882624e-02 -2.81576551e-02]
 [ 3.00760776e-01 -2.16361582e-01 -3.46016586e-02 -1.59398749e-01
   1.25084877e-01 -1.39998704e-01 -1.91996366e-01  5.12505732e-02
  -1.48798674e-01  1.51299784e-04]
 [-1.55549377e-01 -2.24121809e-02 -3.13091800e-02 -2.75341630e-01
   1.77681983e-01  2.42753357e-01 -1.07846305e-01  1.06017545e-01
   1.25383371e-02 -1.42894939e-01]
 [ 1.38593260e-02  5.61388917e-02 -1.40681434e-02 -6.32027239e-02
  -1.06711201e-02 -2.14879259e-01  3.48810345e-01  2.22930387e-01
   4.12515737e-03  1.30958483e-01]
 [-2.97482759e-01  1.46211982e-01 -9.70274732e-02 -6.27332777e-02
   8.38031024e-02 -2.35421792e-01 -1.34031281e-01 -2.95019466e-02
  -1.84849575e-01 -3.40588510e-01]
 [ 1.16460025e-02 -6.21192195e-02  3.42697538e-02 -1.58353582e-01
  -1.09742671e-01  7.02725053e-02  1.09252423e-01  5.26947491e-02
  -8.20875689e-02  6.03110269e-02]
 [-8.12849477e-02 -2.99798101e-01 -1.37326807e-01  7.90984556e-03
  -3.84706795e-01 -8.72821361e-02  3.01202744e-01  5.46649322e-02
  -1.88311085e-01  1.62152909e-02]
 [-1.62995979e-01 -1.87215671e-01 -2.13011831e-01 -9.35033038e-02
   2.12714896e-02 -2.55261511e-01 -1.84235767e-01 -1.81381434e-01
   3.03432364e-02 -1.61695659e-01]
 [-1.31168932e-01 -1.91007525e-01 -1.26655847e-01 -9.11485329e-02
   2.15551957e-01  2.01862499e-01 -2.57060587e-01  1.15198584e-03
  -9.72283483e-02  1.72927007e-01]
 [-4.16063778e-02 -8.18413198e-02 -7.34556615e-02  8.86204392e-02
   1.37104988e-01 -1.09689320e-02 -9.05579999e-02  6.51255324e-02
   1.58593491e-01 -1.63635254e-01]
 [-3.32926586e-02 -1.39225110e-01 -5.42540699e-02 -2.58420706e-01
   4.00664750e-04  3.33680920e-02  1.57334834e-01  5.09941205e-02
  -8.82749856e-02 -5.57084233e-02]
 [ 2.45737713e-02  1.02199562e-01  2.83008635e-01 -2.29269356e-01
  -1.92457378e-01 -1.71571180e-01  2.57992238e-01  1.65395007e-01
   1.58410668e-01  1.48513302e-01]
 [-2.69691169e-01 -2.07730830e-01  4.58080351e-01  3.53865266e-01
  -2.89263725e-01  9.63834450e-02 -1.49952844e-01  1.53503940e-01
  -4.94202733e-01 -1.86908156e-01]
 [ 1.14863828e-01 -5.73525727e-01  2.46092618e-01  2.19514430e-01
   2.52160132e-01  1.34661153e-01  2.24678338e-01 -4.14156705e-01
   5.12679636e-01  5.40981770e-01]
 [-4.46620345e-01 -3.85787129e-01 -2.78812438e-01 -2.77175993e-01
   3.05292070e-01 -4.72516686e-01  1.19466245e-01 -5.08579016e-01
   1.17141046e-01 -4.54656035e-01]
 [ 1.41292691e-01  1.39764547e-02 -1.02264486e-01  1.48372918e-01
  -1.12550268e-02 -1.06928624e-01 -1.96340665e-01  1.00895427e-01
  -8.90978128e-02 -1.38831325e-02]
 [ 1.52901977e-01 -2.85895318e-01 -1.12329058e-01  7.39151314e-02
   2.00714886e-01  2.01355129e-01  1.55275300e-01 -2.05496326e-01
   2.88481936e-02  2.92677164e-01]
 [-2.65928358e-02  9.25008059e-02 -7.36661255e-02  1.70608670e-01
   3.83129194e-02 -3.44261080e-02 -1.65758077e-02 -8.56159180e-02
   8.04212913e-02 -4.70749736e-02]
 [ 1.10964283e-01  2.31395528e-01 -1.49605393e-01 -8.45349878e-02
   6.53117895e-02 -1.31139249e-01  1.36031881e-01 -1.24203466e-01
  -1.54026881e-01  1.74232453e-01]
 [ 5.84506337e-03 -1.49388194e-01 -1.32862046e-01  7.54315555e-02
  -3.10430139e-01 -7.62204230e-02 -3.03028338e-03  1.00228272e-01
  -6.02731220e-02 -1.85746983e-01]
 [ 3.08103025e-01  8.48460868e-02  3.06052595e-01 -1.43681117e-03
   2.03077599e-01  2.46763468e-01  1.29393399e-01  2.68521323e-03
   2.00249583e-01 -9.41894725e-02]
 [ 1.20804936e-01 -2.49337852e-02 -1.15068257e-01 -2.15411070e-03
  -2.15948626e-01 -1.16337247e-01 -1.28686458e-01 -2.63118632e-02
  -2.53955394e-01  1.36092037e-01]
 [ 8.29573125e-02 -1.10169001e-01 -5.12825623e-02  5.78831062e-02
  -2.84594446e-01  8.86843875e-02  1.80655599e-01 -1.75509900e-01
   6.69579953e-02 -7.88077340e-03]
 [ 1.47475349e-02  4.82616387e-02  1.12369686e-01 -6.90464675e-02
  -6.30791411e-02 -1.69039309e-01 -6.47378042e-02  2.61177331e-01
   4.93297121e-03  8.33616182e-02]]